<?xml version="1.0"?>
<opencv_storage>
<stage4>
  <maxWeakCount>13</maxWeakCount>
  <stageThreshold>-1.0100359916687012e+00</stageThreshold>
  <weakClassifiers>
    <_>
      <internalNodes>
        0 -1 1178772 -2.5139305740594864e-02</internalNodes>
      <leafValues>
        5.1047617197036743e-01 -3.8545453548431396e-01</leafValues></_>
    <_>
      <internalNodes>
        0 -1 307865 -1.9793740939348936e-03</internalNodes>
      <leafValues>
        4.7145190834999084e-01 -3.6994400620460510e-01</leafValues></_>
    <_>
      <internalNodes>
        0 -1 817264 -7.5433880556374788e-04</internalNodes>
      <leafValues>
        2.4136976897716522e-01 -6.9627416133880615e-01</leafValues></_>
    <_>
      <internalNodes>
        0 -1 1241662 4.2676110751926899e-06</internalNodes>
      <leafValues>
        -5.5634135007858276e-01 2.8531640768051147e-01</leafValues></_>
    <_>
      <internalNodes>
        0 -1 139667 4.1629900806583464e-05</internalNodes>
      <leafValues>
        1.9221754372119904e-01 -6.4445894956588745e-01</leafValues></_>
    <_>
      <internalNodes>
        0 -1 80558 -6.8527187977451831e-05</internalNodes>
      <leafValues>
        -6.4510858058929443e-01 2.4425657093524933e-01</leafValues></_>
    <_>
      <internalNodes>
        0 -1 555213 -8.7223257869482040e-03</internalNodes>
      <leafValues>
        5.2915978431701660e-01 -3.1822171807289124e-01</leafValues></_>
    <_>
      <internalNodes>
        0 -1 793190 4.2732290239655413e-06</internalNodes>
      <leafValues>
        -5.6554728746414185e-01 2.9873713850975037e-01</leafValues></_>
    <_>
      <internalNodes>
        0 -1 1208740 -3.5635670647025108e-03</internalNodes>
      <leafValues>
        6.3236868381500244e-01 -2.8464651107788086e-01</leafValues></_>
    <_>
      <internalNodes>
        0 -1 849573 -1.2897931039333344e-02</internalNodes>
      <leafValues>
        3.3028596639633179e-01 -5.5013257265090942e-01</leafValues></_>
    <_>
      <internalNodes>
        0 -1 962014 -4.4734934344887733e-03</internalNodes>
      <leafValues>
        4.8189046978950500e-01 -3.6822512745857239e-01</leafValues></_>
    <_>
      <internalNodes>
        0 -1 154673 -5.7618967257440090e-03</internalNodes>
      <leafValues>
        6.3449108600616455e-01 -2.7389878034591675e-01</leafValues></_>
    <_>
      <internalNodes>
        0 -1 631926 -9.6472365839872509e-05</internalNodes>
      <leafValues>
        3.0147832632064819e-01 -5.5185526609420776e-01</leafValues></_></weakClassifiers></stage4>
</opencv_storage>
