<?xml version="1.0"?>
<opencv_storage>
<stage8>
  <maxWeakCount>9</maxWeakCount>
  <stageThreshold>-1.0556728839874268e+00</stageThreshold>
  <weakClassifiers>
    <_>
      <internalNodes>
        0 -1 2605341 -1.0394793003797531e-02</internalNodes>
      <leafValues>
        6.0463833808898926e-01 -6.1403506994247437e-01</leafValues></_>
    <_>
      <internalNodes>
        0 -1 1530233 -2.5869335513561964e-04</internalNodes>
      <leafValues>
        4.3248844146728516e-01 -7.5461322069168091e-01</leafValues></_>
    <_>
      <internalNodes>
        0 -1 2144841 -4.2885588482022285e-03</internalNodes>
      <leafValues>
        3.8059282302856445e-01 -6.8837445974349976e-01</leafValues></_>
    <_>
      <internalNodes>
        0 -1 2766958 1.9663973944261670e-04</internalNodes>
      <leafValues>
        3.2405561208724976e-01 -8.3716166019439697e-01</leafValues></_>
    <_>
      <internalNodes>
        0 -1 1496359 -9.7830165177583694e-03</internalNodes>
      <leafValues>
        -6.7056769132614136e-01 4.0164336562156677e-01</leafValues></_>
    <_>
      <internalNodes>
        0 -1 1759378 -4.1460402309894562e-02</internalNodes>
      <leafValues>
        4.3495851755142212e-01 -6.1170661449432373e-01</leafValues></_>
    <_>
      <internalNodes>
        0 -1 2478599 -7.6192111009731889e-05</internalNodes>
      <leafValues>
        -9.2707937955856323e-01 2.4182672798633575e-01</leafValues></_>
    <_>
      <internalNodes>
        0 -1 2513298 6.1317448853515089e-05</internalNodes>
      <leafValues>
        2.7796459197998047e-01 -8.0185598134994507e-01</leafValues></_>
    <_>
      <internalNodes>
        0 -1 2299260 -9.1119419084861875e-04</internalNodes>
      <leafValues>
        2.7908825874328613e-01 -8.1953549385070801e-01</leafValues></_></weakClassifiers></stage8>
</opencv_storage>
