<?xml version="1.0"?>
<opencv_storage>
<cascade>
  <stageType>BOOST</stageType>
  <featureType>HAAR</featureType>
  <height>40</height>
  <width>40</width>
  <stageParams>
    <boostType>GAB</boostType>
    <minHitRate>9.9500000476837158e-01</minHitRate>
    <maxFalseAlarm>4.0000000596046448e-01</maxFalseAlarm>
    <weightTrimRate>9.4999999999999996e-01</weightTrimRate>
    <maxDepth>1</maxDepth>
    <maxWeakCount>100</maxWeakCount></stageParams>
  <featureParams>
    <maxCatCount>0</maxCatCount>
    <featSize>1</featSize>
    <mode>BASIC</mode></featureParams>
  <stageNum>9</stageNum>
  <stages>
    <!-- stage 0 -->
    <_>
      <maxWeakCount>7</maxWeakCount>
      <stageThreshold>-1.2946758270263672e+00</stageThreshold>
      <weakClassifiers>
        <_>
          <internalNodes>
            0 -1 53 -3.5217810422182083e-02</internalNodes>
          <leafValues>
            5.4628974199295044e-01 -7.2255891561508179e-01</leafValues></_>
        <_>
          <internalNodes>
            0 -1 8 -3.2106224447488785e-02</internalNodes>
          <leafValues>
            5.4171162843704224e-01 -6.3522052764892578e-01</leafValues></_>
        <_>
          <internalNodes>
            0 -1 14 -1.8521314859390259e-01</internalNodes>
          <leafValues>
            5.4086810350418091e-01 -5.2935802936553955e-01</leafValues></_>
        <_>
          <internalNodes>
            0 -1 32 1.8292303138878196e-05</internalNodes>
          <leafValues>
            -7.6636725664138794e-01 3.5686996579170227e-01</leafValues></_>
        <_>
          <internalNodes>
            0 -1 82 -2.3184891688288189e-05</internalNodes>
          <leafValues>
            -7.6877903938293457e-01 2.9703313112258911e-01</leafValues></_>
        <_>
          <internalNodes>
            0 -1 28 -9.1345496475696564e-03</internalNodes>
          <leafValues>
            4.1338431835174561e-01 -5.0950765609741211e-01</leafValues></_>
        <_>
          <internalNodes>
            0 -1 38 -2.7758691459894180e-02</internalNodes>
          <leafValues>
            4.6343937516212463e-01 -4.7482576966285706e-01</leafValues></_></weakClassifiers></_>
    <!-- stage 1 -->
    <_>
      <maxWeakCount>7</maxWeakCount>
      <stageThreshold>-1.1889932155609131e+00</stageThreshold>
      <weakClassifiers>
        <_>
          <internalNodes>
            0 -1 46 -4.0979195386171341e-02</internalNodes>
          <leafValues>
            6.5928775072097778e-01 -5.2928531169891357e-01</leafValues></_>
        <_>
          <internalNodes>
            0 -1 48 -2.9318686574697495e-03</internalNodes>
          <leafValues>
            3.6060994863510132e-01 -7.6866090297698975e-01</leafValues></_>
        <_>
          <internalNodes>
            0 -1 65 -5.1382981473580003e-04</internalNodes>
          <leafValues>
            -7.9804098606109619e-01 3.1171590089797974e-01</leafValues></_>
        <_>
          <internalNodes>
            0 -1 23 -3.1037811189889908e-02</internalNodes>
          <leafValues>
            7.4306738376617432e-01 -3.7791565060615540e-01</leafValues></_>
        <_>
          <internalNodes>
            0 -1 39 -3.5188172012567520e-02</internalNodes>
          <leafValues>
            5.8228677511215210e-01 -4.0767621994018555e-01</leafValues></_>
        <_>
          <internalNodes>
            0 -1 76 -5.2856146794511005e-05</internalNodes>
          <leafValues>
            -7.3875147104263306e-01 3.1647834181785583e-01</leafValues></_>
        <_>
          <internalNodes>
            0 -1 26 2.4334136469406076e-05</internalNodes>
          <leafValues>
            2.6635065674781799e-01 -8.0308449268341064e-01</leafValues></_></weakClassifiers></_>
    <!-- stage 2 -->
    <_>
      <maxWeakCount>7</maxWeakCount>
      <stageThreshold>-8.7213015556335449e-01</stageThreshold>
      <weakClassifiers>
        <_>
          <internalNodes>
            0 -1 71 -3.9584420621395111e-02</internalNodes>
          <leafValues>
            7.0183485746383667e-01 -4.4970414042472839e-01</leafValues></_>
        <_>
          <internalNodes>
            0 -1 7 -1.9091054797172546e-02</internalNodes>
          <leafValues>
            7.1899509429931641e-01 -2.9312556982040405e-01</leafValues></_>
        <_>
          <internalNodes>
            0 -1 47 -7.9860448837280273e-02</internalNodes>
          <leafValues>
            5.0327873229980469e-01 -4.6825149655342102e-01</leafValues></_>
        <_>
          <internalNodes>
            0 -1 67 -1.1319849363644607e-05</internalNodes>
          <leafValues>
            -7.0164757966995239e-01 3.1965807080268860e-01</leafValues></_>
        <_>
          <internalNodes>
            0 -1 12 -5.1866658031940460e-02</internalNodes>
          <leafValues>
            5.1017254590988159e-01 -4.7874599695205688e-01</leafValues></_>
        <_>
          <internalNodes>
            0 -1 85 9.1943320512655191e-06</internalNodes>
          <leafValues>
            -6.1856371164321899e-01 3.1546026468276978e-01</leafValues></_>
        <_>
          <internalNodes>
            0 -1 75 1.7089821631088853e-04</internalNodes>
          <leafValues>
            2.3235417902469635e-01 -7.0946449041366577e-01</leafValues></_></weakClassifiers></_>
    <!-- stage 3 -->
    <_>
      <maxWeakCount>8</maxWeakCount>
      <stageThreshold>-8.8374567031860352e-01</stageThreshold>
      <weakClassifiers>
        <_>
          <internalNodes>
            0 -1 64 -3.0731230974197388e-02</internalNodes>
          <leafValues>
            6.5654206275939941e-01 -4.2172211408615112e-01</leafValues></_>
        <_>
          <internalNodes>
            0 -1 6 -2.3757714778184891e-02</internalNodes>
          <leafValues>
            5.1585519313812256e-01 -4.4841715693473816e-01</leafValues></_>
        <_>
          <internalNodes>
            0 -1 51 -4.9693929031491280e-04</internalNodes>
          <leafValues>
            2.7050116658210754e-01 -7.5652194023132324e-01</leafValues></_>
        <_>
          <internalNodes>
            0 -1 78 2.4895834940252826e-05</internalNodes>
          <leafValues>
            -7.1485328674316406e-01 2.8616982698440552e-01</leafValues></_>
        <_>
          <internalNodes>
            0 -1 25 5.5172604334075004e-05</internalNodes>
          <leafValues>
            -6.9292950630187988e-01 1.9283699989318848e-01</leafValues></_>
        <_>
          <internalNodes>
            0 -1 31 1.3381633834796958e-05</internalNodes>
          <leafValues>
            2.6496323943138123e-01 -7.4937176704406738e-01</leafValues></_>
        <_>
          <internalNodes>
            0 -1 15 -1.1948341503739357e-02</internalNodes>
          <leafValues>
            6.9497948884963989e-01 -3.1680145859718323e-01</leafValues></_>
        <_>
          <internalNodes>
            0 -1 59 -1.3471455313265324e-03</internalNodes>
          <leafValues>
            3.5249760746955872e-01 -5.7490092515945435e-01</leafValues></_></weakClassifiers></_>
    <!-- stage 4 -->
    <_>
      <maxWeakCount>9</maxWeakCount>
      <stageThreshold>-8.7734615802764893e-01</stageThreshold>
      <weakClassifiers>
        <_>
          <internalNodes>
            0 -1 60 -2.7451336383819580e-02</internalNodes>
          <leafValues>
            5.1271188259124756e-01 -4.0081799030303955e-01</leafValues></_>
        <_>
          <internalNodes>
            0 -1 1 -1.9058633595705032e-02</internalNodes>
          <leafValues>
            6.0636258125305176e-01 -3.1752938032150269e-01</leafValues></_>
        <_>
          <internalNodes>
            0 -1 74 8.0519421317148954e-06</internalNodes>
          <leafValues>
            -6.1302500963211060e-01 2.7903768420219421e-01</leafValues></_>
        <_>
          <internalNodes>
            0 -1 36 -1.9643795894808136e-05</internalNodes>
          <leafValues>
            2.8001683950424194e-01 -6.2157434225082397e-01</leafValues></_>
        <_>
          <internalNodes>
            0 -1 29 -4.0060948580503464e-02</internalNodes>
          <leafValues>
            3.3229023218154907e-01 -5.5438297986984253e-01</leafValues></_>
        <_>
          <internalNodes>
            0 -1 19 3.0530733056366444e-04</internalNodes>
          <leafValues>
            2.3043674230575562e-01 -7.4931967258453369e-01</leafValues></_>
        <_>
          <internalNodes>
            0 -1 5 -1.7050524184014648e-04</internalNodes>
          <leafValues>
            -7.3788511753082275e-01 2.3198427259922028e-01</leafValues></_>
        <_>
          <internalNodes>
            0 -1 61 4.6851746446918696e-05</internalNodes>
          <leafValues>
            1.7427076399326324e-01 -7.5290048122406006e-01</leafValues></_>
        <_>
          <internalNodes>
            0 -1 17 8.9214474428445101e-05</internalNodes>
          <leafValues>
            1.9431234896183014e-01 -6.8434941768646240e-01</leafValues></_></weakClassifiers></_>
    <!-- stage 5 -->
    <_>
      <maxWeakCount>10</maxWeakCount>
      <stageThreshold>-1.4991296529769897e+00</stageThreshold>
      <weakClassifiers>
        <_>
          <internalNodes>
            0 -1 72 -4.8781696707010269e-02</internalNodes>
          <leafValues>
            5.4175591468811035e-01 -4.0996947884559631e-01</leafValues></_>
        <_>
          <internalNodes>
            0 -1 77 8.3928925960208289e-06</internalNodes>
          <leafValues>
            -6.4630228281021118e-01 2.7485921978950500e-01</leafValues></_>
        <_>
          <internalNodes>
            0 -1 42 8.4855073509970680e-06</internalNodes>
          <leafValues>
            -6.3387238979339600e-01 2.4227862060070038e-01</leafValues></_>
        <_>
          <internalNodes>
            0 -1 24 -3.7164594978094101e-03</internalNodes>
          <leafValues>
            4.8237425088882446e-01 -3.4169456362724304e-01</leafValues></_>
        <_>
          <internalNodes>
            0 -1 35 1.1995884960924741e-05</internalNodes>
          <leafValues>
            2.3113371431827545e-01 -7.3102390766143799e-01</leafValues></_>
        <_>
          <internalNodes>
            0 -1 3 3.3782613172661513e-05</internalNodes>
          <leafValues>
            2.3565183579921722e-01 -6.4665383100509644e-01</leafValues></_>
        <_>
          <internalNodes>
            0 -1 56 -9.3801890034228563e-04</internalNodes>
          <leafValues>
            2.1291241049766541e-01 -6.0000413656234741e-01</leafValues></_>
        <_>
          <internalNodes>
            0 -1 66 -1.1488722520880401e-05</internalNodes>
          <leafValues>
            -7.4637687206268311e-01 2.0099008083343506e-01</leafValues></_>
        <_>
          <internalNodes>
            0 -1 44 -9.2236841737758368e-06</internalNodes>
          <leafValues>
            2.5971910357475281e-01 -5.5153262615203857e-01</leafValues></_>
        <_>
          <internalNodes>
            0 -1 16 2.3528035671915859e-04</internalNodes>
          <leafValues>
            1.9633646309375763e-01 -7.0978844165802002e-01</leafValues></_></weakClassifiers></_>
    <!-- stage 6 -->
    <_>
      <maxWeakCount>11</maxWeakCount>
      <stageThreshold>-1.3196398019790649e+00</stageThreshold>
      <weakClassifiers>
        <_>
          <internalNodes>
            0 -1 62 9.9947713315486908e-03</internalNodes>
          <leafValues>
            -3.9728882908821106e-01 4.7046843171119690e-01</leafValues></_>
        <_>
          <internalNodes>
            0 -1 2 -1.3801695778965950e-02</internalNodes>
          <leafValues>
            5.3609359264373779e-01 -2.9757016897201538e-01</leafValues></_>
        <_>
          <internalNodes>
            0 -1 68 1.9205835997126997e-05</internalNodes>
          <leafValues>
            -5.4334956407546997e-01 2.9325225949287415e-01</leafValues></_>
        <_>
          <internalNodes>
            0 -1 9 -6.8395279347896576e-02</internalNodes>
          <leafValues>
            4.4831204414367676e-01 -3.4848982095718384e-01</leafValues></_>
        <_>
          <internalNodes>
            0 -1 18 8.5183630289975554e-05</internalNodes>
          <leafValues>
            2.5701266527175903e-01 -6.6595804691314697e-01</leafValues></_>
        <_>
          <internalNodes>
            0 -1 22 -4.2492472857702523e-05</internalNodes>
          <leafValues>
            -7.0673781633377075e-01 2.2919505834579468e-01</leafValues></_>
        <_>
          <internalNodes>
            0 -1 11 -6.6768239776138216e-05</internalNodes>
          <leafValues>
            -6.2212145328521729e-01 2.0371152460575104e-01</leafValues></_>
        <_>
          <internalNodes>
            0 -1 55 -2.2440436296164989e-03</internalNodes>
          <leafValues>
            2.6732999086380005e-01 -5.5746400356292725e-01</leafValues></_>
        <_>
          <internalNodes>
            0 -1 27 -2.0664180628955364e-03</internalNodes>
          <leafValues>
            4.1172561049461365e-01 -3.5041308403015137e-01</leafValues></_>
        <_>
          <internalNodes>
            0 -1 41 1.8580823962111026e-05</internalNodes>
          <leafValues>
            -4.6192750334739685e-01 3.1333798170089722e-01</leafValues></_>
        <_>
          <internalNodes>
            0 -1 40 -1.6580037772655487e-03</internalNodes>
          <leafValues>
            -7.6231789588928223e-01 1.7403633892536163e-01</leafValues></_></weakClassifiers></_>
    <!-- stage 7 -->
    <_>
      <maxWeakCount>13</maxWeakCount>
      <stageThreshold>-9.9051302671432495e-01</stageThreshold>
      <weakClassifiers>
        <_>
          <internalNodes>
            0 -1 52 -3.8113288581371307e-02</internalNodes>
          <leafValues>
            5.2073734998703003e-01 -3.7007874250411987e-01</leafValues></_>
        <_>
          <internalNodes>
            0 -1 84 2.6856398108066060e-05</internalNodes>
          <leafValues>
            -5.5145537853240967e-01 2.6212909817695618e-01</leafValues></_>
        <_>
          <internalNodes>
            0 -1 43 -2.9625345632666722e-05</internalNodes>
          <leafValues>
            2.6601475477218628e-01 -5.3613221645355225e-01</leafValues></_>
        <_>
          <internalNodes>
            0 -1 13 1.4001436284161173e-05</internalNodes>
          <leafValues>
            2.1597324311733246e-01 -6.6556459665298462e-01</leafValues></_>
        <_>
          <internalNodes>
            0 -1 0 -1.0580332949757576e-02</internalNodes>
          <leafValues>
            5.0897467136383057e-01 -2.8959810733795166e-01</leafValues></_>
        <_>
          <internalNodes>
            0 -1 34 -8.3534614532254636e-06</internalNodes>
          <leafValues>
            2.2995866835117340e-01 -5.4139536619186401e-01</leafValues></_>
        <_>
          <internalNodes>
            0 -1 33 5.5049218644853681e-05</internalNodes>
          <leafValues>
            1.8160486221313477e-01 -6.7972940206527710e-01</leafValues></_>
        <_>
          <internalNodes>
            0 -1 73 -1.4675624697702006e-05</internalNodes>
          <leafValues>
            -6.8201035261154175e-01 1.6779148578643799e-01</leafValues></_>
        <_>
          <internalNodes>
            0 -1 63 -4.4669467024505138e-04</internalNodes>
          <leafValues>
            -7.2278785705566406e-01 1.5082097053527832e-01</leafValues></_>
        <_>
          <internalNodes>
            0 -1 20 3.9539125282317400e-04</internalNodes>
          <leafValues>
            -5.5787968635559082e-01 1.9221989810466766e-01</leafValues></_>
        <_>
          <internalNodes>
            0 -1 49 -1.0971383017022163e-04</internalNodes>
          <leafValues>
            2.2354860603809357e-01 -5.2992308139801025e-01</leafValues></_>
        <_>
          <internalNodes>
            0 -1 70 5.0977570936083794e-04</internalNodes>
          <leafValues>
            1.4081397652626038e-01 -7.4180239439010620e-01</leafValues></_>
        <_>
          <internalNodes>
            0 -1 45 -1.4646435738541186e-04</internalNodes>
          <leafValues>
            2.1483346819877625e-01 -5.1599591970443726e-01</leafValues></_></weakClassifiers></_>
    <!-- stage 8 -->
    <_>
      <maxWeakCount>14</maxWeakCount>
      <stageThreshold>-1.2928938865661621e+00</stageThreshold>
      <weakClassifiers>
        <_>
          <internalNodes>
            0 -1 69 -3.3116247504949570e-02</internalNodes>
          <leafValues>
            5.4982417821884155e-01 -3.7567171454429626e-01</leafValues></_>
        <_>
          <internalNodes>
            0 -1 4 1.2020431313430890e-04</internalNodes>
          <leafValues>
            2.2934076189994812e-01 -5.9968066215515137e-01</leafValues></_>
        <_>
          <internalNodes>
            0 -1 37 -3.1154099269770086e-04</internalNodes>
          <leafValues>
            2.3533160984516144e-01 -5.2808433771133423e-01</leafValues></_>
        <_>
          <internalNodes>
            0 -1 21 -3.6139145493507385e-02</internalNodes>
          <leafValues>
            5.1363158226013184e-01 -2.5468978285789490e-01</leafValues></_>
        <_>
          <internalNodes>
            0 -1 54 -1.9951323047280312e-02</internalNodes>
          <leafValues>
            2.3161096870899200e-01 -5.2590894699096680e-01</leafValues></_>
        <_>
          <internalNodes>
            0 -1 10 7.8422184742521495e-05</internalNodes>
          <leafValues>
            2.1345251798629761e-01 -6.6631013154983521e-01</leafValues></_>
        <_>
          <internalNodes>
            0 -1 57 -3.0425109434872866e-04</internalNodes>
          <leafValues>
            -7.0386403799057007e-01 1.7195683717727661e-01</leafValues></_>
        <_>
          <internalNodes>
            0 -1 83 9.3774924607714638e-06</internalNodes>
          <leafValues>
            -6.7424774169921875e-01 1.6205863654613495e-01</leafValues></_>
        <_>
          <internalNodes>
            0 -1 79 -8.0682300904300064e-05</internalNodes>
          <leafValues>
            3.4333428740501404e-01 -3.8097217679023743e-01</leafValues></_>
        <_>
          <internalNodes>
            0 -1 81 -2.3456545022781938e-05</internalNodes>
          <leafValues>
            -6.6833364963531494e-01 1.5561060607433319e-01</leafValues></_>
        <_>
          <internalNodes>
            0 -1 80 4.5750098070129752e-04</internalNodes>
          <leafValues>
            1.5578918159008026e-01 -7.5156903266906738e-01</leafValues></_>
        <_>
          <internalNodes>
            0 -1 58 -1.5901529695838690e-04</internalNodes>
          <leafValues>
            3.4200718998908997e-01 -3.5862207412719727e-01</leafValues></_>
        <_>
          <internalNodes>
            0 -1 30 -3.2950236927717924e-03</internalNodes>
          <leafValues>
            4.1099578142166138e-01 -3.2727390527725220e-01</leafValues></_>
        <_>
          <internalNodes>
            0 -1 50 -6.7327596247196198e-02</internalNodes>
          <leafValues>
            6.6674500703811646e-01 -1.9147187471389771e-01</leafValues></_></weakClassifiers></_></stages>
  <features>
    <_>
      <rects>
        <_>
          0 0 20 6 -1.</_>
        <_>
          0 0 10 3 2.</_>
        <_>
          10 3 10 3 2.</_></rects>
      <tilted>0</tilted></_>
    <_>
      <rects>
        <_>
          0 11 8 9 -1.</_>
        <_>
          4 11 4 9 2.</_></rects>
      <tilted>0</tilted></_>
    <_>
      <rects>
        <_>
          0 14 6 11 -1.</_>
        <_>
          3 14 3 11 2.</_></rects>
      <tilted>0</tilted></_>
    <_>
      <rects>
        <_>
          0 35 2 3 -1.</_>
        <_>
          1 35 1 3 2.</_></rects>
      <tilted>0</tilted></_>
    <_>
      <rects>
        <_>
          0 37 5 3 -1.</_>
        <_>
          0 38 5 1 3.</_></rects>
      <tilted>0</tilted></_>
    <_>
      <rects>
        <_>
          0 37 7 3 -1.</_>
        <_>
          0 38 7 1 3.</_></rects>
      <tilted>0</tilted></_>
    <_>
      <rects>
        <_>
          1 4 8 28 -1.</_>
        <_>
          5 4 4 28 2.</_></rects>
      <tilted>0</tilted></_>
    <_>
      <rects>
        <_>
          1 4 22 3 -1.</_>
        <_>
          12 4 11 3 2.</_></rects>
      <tilted>0</tilted></_>
    <_>
      <rects>
        <_>
          1 5 12 35 -1.</_>
        <_>
          7 5 6 35 2.</_></rects>
      <tilted>0</tilted></_>
    <_>
      <rects>
        <_>
          1 12 22 26 -1.</_>
        <_>
          1 12 11 13 2.</_>
        <_>
          12 25 11 13 2.</_></rects>
      <tilted>0</tilted></_>
    <_>
      <rects>
        <_>
          1 33 2 3 -1.</_>
        <_>
          1 34 2 1 3.</_></rects>
      <tilted>0</tilted></_>
    <_>
      <rects>
        <_>
          1 33 6 2 -1.</_>
        <_>
          1 34 6 1 2.</_></rects>
      <tilted>0</tilted></_>
    <_>
      <rects>
        <_>
          1 33 39 6 -1.</_>
        <_>
          14 33 13 6 3.</_></rects>
      <tilted>0</tilted></_>
    <_>
      <rects>
        <_>
          1 35 2 1 -1.</_>
        <_>
          2 35 1 1 2.</_></rects>
      <tilted>0</tilted></_>
    <_>
      <rects>
        <_>
          2 0 37 32 -1.</_>
        <_>
          2 16 37 16 2.</_></rects>
      <tilted>0</tilted></_>
    <_>
      <rects>
        <_>
          2 1 12 8 -1.</_>
        <_>
          2 1 6 4 2.</_>
        <_>
          8 5 6 4 2.</_></rects>
      <tilted>0</tilted></_>
    <_>
      <rects>
        <_>
          2 2 6 3 -1.</_>
        <_>
          2 3 6 1 3.</_></rects>
      <tilted>0</tilted></_>
    <_>
      <rects>
        <_>
          2 3 3 3 -1.</_>
        <_>
          2 4 3 1 3.</_></rects>
      <tilted>0</tilted></_>
    <_>
      <rects>
        <_>
          3 1 2 3 -1.</_>
        <_>
          3 2 2 1 3.</_></rects>
      <tilted>0</tilted></_>
    <_>
      <rects>
        <_>
          3 37 6 3 -1.</_>
        <_>
          3 38 6 1 3.</_></rects>
      <tilted>0</tilted></_>
    <_>
      <rects>
        <_>
          3 37 35 2 -1.</_>
        <_>
          3 38 35 1 2.</_></rects>
      <tilted>0</tilted></_>
    <_>
      <rects>
        <_>
          4 0 4 22 -1.</_>
        <_>
          4 11 4 11 2.</_></rects>
      <tilted>0</tilted></_>
    <_>
      <rects>
        <_>
          4 1 1 3 -1.</_>
        <_>
          4 2 1 1 3.</_></rects>
      <tilted>0</tilted></_>
    <_>
      <rects>
        <_>
          4 1 4 22 -1.</_>
        <_>
          4 12 4 11 2.</_></rects>
      <tilted>0</tilted></_>
    <_>
      <rects>
        <_>
          4 4 22 1 -1.</_>
        <_>
          15 4 11 1 2.</_></rects>
      <tilted>0</tilted></_>
    <_>
      <rects>
        <_>
          4 35 9 4 -1.</_>
        <_>
          4 37 9 2 2.</_></rects>
      <tilted>0</tilted></_>
    <_>
      <rects>
        <_>
          4 36 2 1 -1.</_>
        <_>
          5 36 1 1 2.</_></rects>
      <tilted>0</tilted></_>
    <_>
      <rects>
        <_>
          5 7 4 5 -1.</_>
        <_>
          7 7 2 5 2.</_></rects>
      <tilted>0</tilted></_>
    <_>
      <rects>
        <_>
          5 35 33 3 -1.</_>
        <_>
          16 35 11 3 3.</_></rects>
      <tilted>0</tilted></_>
    <_>
      <rects>
        <_>
          6 12 26 27 -1.</_>
        <_>
          6 21 26 9 3.</_></rects>
      <tilted>0</tilted></_>
    <_>
      <rects>
        <_>
          6 26 4 13 -1.</_>
        <_>
          8 26 2 13 2.</_></rects>
      <tilted>0</tilted></_>
    <_>
      <rects>
        <_>
          6 36 2 1 -1.</_>
        <_>
          7 36 1 1 2.</_></rects>
      <tilted>0</tilted></_>
    <_>
      <rects>
        <_>
          7 38 24 2 -1.</_>
        <_>
          7 39 24 1 2.</_></rects>
      <tilted>0</tilted></_>
    <_>
      <rects>
        <_>
          8 0 1 3 -1.</_>
        <_>
          8 1 1 1 3.</_></rects>
      <tilted>0</tilted></_>
    <_>
      <rects>
        <_>
          8 37 2 3 -1.</_>
        <_>
          9 37 1 3 2.</_></rects>
      <tilted>0</tilted></_>
    <_>
      <rects>
        <_>
          9 38 2 1 -1.</_>
        <_>
          10 38 1 1 2.</_></rects>
      <tilted>0</tilted></_>
    <_>
      <rects>
        <_>
          9 39 6 1 -1.</_>
        <_>
          12 39 3 1 2.</_></rects>
      <tilted>0</tilted></_>
    <_>
      <rects>
        <_>
          11 37 24 1 -1.</_>
        <_>
          19 37 8 1 3.</_></rects>
      <tilted>0</tilted></_>
    <_>
      <rects>
        <_>
          13 0 17 15 -1.</_>
        <_>
          13 5 17 5 3.</_></rects>
      <tilted>0</tilted></_>
    <_>
      <rects>
        <_>
          13 6 27 8 -1.</_>
        <_>
          22 6 9 8 3.</_></rects>
      <tilted>0</tilted></_>
    <_>
      <rects>
        <_>
          13 22 15 1 -1.</_>
        <_>
          18 22 5 1 3.</_></rects>
      <tilted>0</tilted></_>
    <_>
      <rects>
        <_>
          13 37 2 2 -1.</_>
        <_>
          13 38 2 1 2.</_></rects>
      <tilted>0</tilted></_>
    <_>
      <rects>
        <_>
          13 38 2 2 -1.</_>
        <_>
          13 39 2 1 2.</_></rects>
      <tilted>0</tilted></_>
    <_>
      <rects>
        <_>
          13 39 8 1 -1.</_>
        <_>
          17 39 4 1 2.</_></rects>
      <tilted>0</tilted></_>
    <_>
      <rects>
        <_>
          14 37 2 3 -1.</_>
        <_>
          15 37 1 3 2.</_></rects>
      <tilted>0</tilted></_>
    <_>
      <rects>
        <_>
          15 18 11 2 -1.</_>
        <_>
          15 19 11 1 2.</_></rects>
      <tilted>0</tilted></_>
    <_>
      <rects>
        <_>
          16 2 20 16 -1.</_>
        <_>
          16 2 10 8 2.</_>
        <_>
          26 10 10 8 2.</_></rects>
      <tilted>0</tilted></_>
    <_>
      <rects>
        <_>
          16 5 24 21 -1.</_>
        <_>
          24 5 8 21 3.</_></rects>
      <tilted>0</tilted></_>
    <_>
      <rects>
        <_>
          16 14 8 12 -1.</_>
        <_>
          16 20 8 6 2.</_></rects>
      <tilted>0</tilted></_>
    <_>
      <rects>
        <_>
          16 19 1 8 -1.</_>
        <_>
          16 23 1 4 2.</_></rects>
      <tilted>0</tilted></_>
    <_>
      <rects>
        <_>
          17 12 11 16 -1.</_>
        <_>
          17 20 11 8 2.</_></rects>
      <tilted>0</tilted></_>
    <_>
      <rects>
        <_>
          18 14 1 16 -1.</_>
        <_>
          18 22 1 8 2.</_></rects>
      <tilted>0</tilted></_>
    <_>
      <rects>
        <_>
          19 4 18 12 -1.</_>
        <_>
          19 4 9 6 2.</_>
        <_>
          28 10 9 6 2.</_></rects>
      <tilted>0</tilted></_>
    <_>
      <rects>
        <_>
          19 8 21 13 -1.</_>
        <_>
          26 8 7 13 3.</_></rects>
      <tilted>0</tilted></_>
    <_>
      <rects>
        <_>
          19 9 18 17 -1.</_>
        <_>
          25 9 6 17 3.</_></rects>
      <tilted>0</tilted></_>
    <_>
      <rects>
        <_>
          19 12 4 24 -1.</_>
        <_>
          19 20 4 8 3.</_></rects>
      <tilted>0</tilted></_>
    <_>
      <rects>
        <_>
          21 19 18 1 -1.</_>
        <_>
          27 19 6 1 3.</_></rects>
      <tilted>0</tilted></_>
    <_>
      <rects>
        <_>
          22 20 3 4 -1.</_>
        <_>
          23 20 1 4 3.</_></rects>
      <tilted>0</tilted></_>
    <_>
      <rects>
        <_>
          23 3 2 2 -1.</_>
        <_>
          23 4 2 1 2.</_></rects>
      <tilted>0</tilted></_>
    <_>
      <rects>
        <_>
          23 14 15 2 -1.</_>
        <_>
          28 14 5 2 3.</_></rects>
      <tilted>0</tilted></_>
    <_>
      <rects>
        <_>
          24 0 8 10 -1.</_>
        <_>
          24 5 8 5 2.</_></rects>
      <tilted>0</tilted></_>
    <_>
      <rects>
        <_>
          24 39 3 1 -1.</_>
        <_>
          25 39 1 1 3.</_></rects>
      <tilted>0</tilted></_>
    <_>
      <rects>
        <_>
          25 0 12 8 -1.</_>
        <_>
          25 0 6 4 2.</_>
        <_>
          31 4 6 4 2.</_></rects>
      <tilted>0</tilted></_>
    <_>
      <rects>
        <_>
          26 14 4 3 -1.</_>
        <_>
          26 15 4 1 3.</_></rects>
      <tilted>0</tilted></_>
    <_>
      <rects>
        <_>
          28 0 5 14 -1.</_>
        <_>
          28 7 5 7 2.</_></rects>
      <tilted>0</tilted></_>
    <_>
      <rects>
        <_>
          28 37 12 3 -1.</_>
        <_>
          28 38 12 1 3.</_></rects>
      <tilted>0</tilted></_>
    <_>
      <rects>
        <_>
          28 38 1 2 -1.</_>
        <_>
          28 39 1 1 2.</_></rects>
      <tilted>0</tilted></_>
    <_>
      <rects>
        <_>
          28 38 11 2 -1.</_>
        <_>
          28 39 11 1 2.</_></rects>
      <tilted>0</tilted></_>
    <_>
      <rects>
        <_>
          29 36 4 2 -1.</_>
        <_>
          31 36 2 2 2.</_></rects>
      <tilted>0</tilted></_>
    <_>
      <rects>
        <_>
          30 0 4 16 -1.</_>
        <_>
          30 8 4 8 2.</_></rects>
      <tilted>0</tilted></_>
    <_>
      <rects>
        <_>
          30 37 9 3 -1.</_>
        <_>
          30 38 9 1 3.</_></rects>
      <tilted>0</tilted></_>
    <_>
      <rects>
        <_>
          31 0 4 22 -1.</_>
        <_>
          31 11 4 11 2.</_></rects>
      <tilted>0</tilted></_>
    <_>
      <rects>
        <_>
          32 0 5 22 -1.</_>
        <_>
          32 11 5 11 2.</_></rects>
      <tilted>0</tilted></_>
    <_>
      <rects>
        <_>
          32 36 2 1 -1.</_>
        <_>
          33 36 1 1 2.</_></rects>
      <tilted>0</tilted></_>
    <_>
      <rects>
        <_>
          33 35 2 2 -1.</_>
        <_>
          34 35 1 2 2.</_></rects>
      <tilted>0</tilted></_>
    <_>
      <rects>
        <_>
          33 35 3 3 -1.</_>
        <_>
          33 36 3 1 3.</_></rects>
      <tilted>0</tilted></_>
    <_>
      <rects>
        <_>
          34 35 3 2 -1.</_>
        <_>
          34 36 3 1 2.</_></rects>
      <tilted>0</tilted></_>
    <_>
      <rects>
        <_>
          35 32 2 3 -1.</_>
        <_>
          36 32 1 3 2.</_></rects>
      <tilted>0</tilted></_>
    <_>
      <rects>
        <_>
          35 34 4 3 -1.</_>
        <_>
          37 34 2 3 2.</_></rects>
      <tilted>0</tilted></_>
    <_>
      <rects>
        <_>
          36 12 1 6 -1.</_>
        <_>
          36 15 1 3 2.</_></rects>
      <tilted>0</tilted></_>
    <_>
      <rects>
        <_>
          37 1 3 8 -1.</_>
        <_>
          38 1 1 8 3.</_></rects>
      <tilted>0</tilted></_>
    <_>
      <rects>
        <_>
          37 7 2 1 -1.</_>
        <_>
          38 7 1 1 2.</_></rects>
      <tilted>0</tilted></_>
    <_>
      <rects>
        <_>
          37 29 2 4 -1.</_>
        <_>
          38 29 1 4 2.</_></rects>
      <tilted>0</tilted></_>
    <_>
      <rects>
        <_>
          37 33 2 3 -1.</_>
        <_>
          38 33 1 3 2.</_></rects>
      <tilted>0</tilted></_>
    <_>
      <rects>
        <_>
          38 26 2 4 -1.</_>
        <_>
          39 26 1 4 2.</_></rects>
      <tilted>0</tilted></_>
    <_>
      <rects>
        <_>
          38 32 2 4 -1.</_>
        <_>
          39 32 1 4 2.</_></rects>
      <tilted>0</tilted></_></features></cascade>
</opencv_storage>
