<?xml version="1.0"?>
<opencv_storage>
<stage7>
  <maxWeakCount>6</maxWeakCount>
  <stageThreshold>-6.4781457185745239e-01</stageThreshold>
  <weakClassifiers>
    <_>
      <internalNodes>
        0 -1 2528031 -7.6596676080953330e-05</internalNodes>
      <leafValues>
        -5.8395242691040039e-01 6.2702190876007080e-01</leafValues></_>
    <_>
      <internalNodes>
        0 -1 7027 -3.0013192445039749e-02</internalNodes>
      <leafValues>
        6.5547692775726318e-01 -4.6270689368247986e-01</leafValues></_>
    <_>
      <internalNodes>
        0 -1 2827015 1.4412049204111099e-02</internalNodes>
      <leafValues>
        -5.4711467027664185e-01 5.1581007242202759e-01</leafValues></_>
    <_>
      <internalNodes>
        0 -1 1129737 -5.7944003492593765e-03</internalNodes>
      <leafValues>
        4.5991545915603638e-01 -5.4648846387863159e-01</leafValues></_>
    <_>
      <internalNodes>
        0 -1 1222846 -5.2414238452911377e-03</internalNodes>
      <leafValues>
        2.8626489639282227e-01 -8.2794672250747681e-01</leafValues></_>
    <_>
      <internalNodes>
        0 -1 2059270 4.4328387593850493e-04</internalNodes>
      <leafValues>
        2.0238879323005676e-01 -9.1840469837188721e-01</leafValues></_></weakClassifiers></stage7>
</opencv_storage>
