<?xml version="1.0"?>
<opencv_storage>
<stage5>
  <maxWeakCount>6</maxWeakCount>
  <stageThreshold>-9.0366184711456299e-01</stageThreshold>
  <weakClassifiers>
    <_>
      <internalNodes>
        0 -1 2398101 -2.4168426170945168e-03</internalNodes>
      <leafValues>
        6.9486403465270996e-01 -5.7667934894561768e-01</leafValues></_>
    <_>
      <internalNodes>
        0 -1 945638 -1.7801031470298767e-02</internalNodes>
      <leafValues>
        6.4262562990188599e-01 -5.1292550563812256e-01</leafValues></_>
    <_>
      <internalNodes>
        0 -1 891769 -2.4951651692390442e-01</internalNodes>
      <leafValues>
        5.1090270280838013e-01 -5.7742023468017578e-01</leafValues></_>
    <_>
      <internalNodes>
        0 -1 2057967 2.0325585501268506e-04</internalNodes>
      <leafValues>
        3.0498135089874268e-01 -9.6998113393783569e-01</leafValues></_>
    <_>
      <internalNodes>
        0 -1 2193250 1.2908570352010429e-04</internalNodes>
      <leafValues>
        2.1577583253383636e-01 -8.8543045520782471e-01</leafValues></_>
    <_>
      <internalNodes>
        0 -1 2371253 -9.2792201030533761e-05</internalNodes>
      <leafValues>
        -7.7598047256469727e-01 2.4260605871677399e-01</leafValues></_></weakClassifiers></stage5>
</opencv_storage>
