<?xml version="1.0"?>
<opencv_storage>
<cascade>
  <stageType>BOOST</stageType>
  <featureType>HAAR</featureType>
  <height>50</height>
  <width>50</width>
  <stageParams>
    <boostType>GAB</boostType>
    <minHitRate>9.9500000476837158e-01</minHitRate>
    <maxFalseAlarm>5.0000000000000000e-01</maxFalseAlarm>
    <weightTrimRate>9.4999999999999996e-01</weightTrimRate>
    <maxDepth>1</maxDepth>
    <maxWeakCount>100</maxWeakCount></stageParams>
  <featureParams>
    <maxCatCount>0</maxCatCount>
    <featSize>1</featSize>
    <mode>BASIC</mode></featureParams>
  <stageNum>9</stageNum>
  <stages>
    <!-- stage 0 -->
    <_>
      <maxWeakCount>3</maxWeakCount>
      <stageThreshold>-1.0737265348434448e+00</stageThreshold>
      <weakClassifiers>
        <_>
          <internalNodes>
            0 -1 12 -2.6838153600692749e-01</internalNodes>
          <leafValues>
            6.5294116735458374e-01 -7.7547168731689453e-01</leafValues></_>
        <_>
          <internalNodes>
            0 -1 16 -1.8002831935882568e-01</internalNodes>
          <leafValues>
            6.4633047580718994e-01 -6.4747667312622070e-01</leafValues></_>
        <_>
          <internalNodes>
            0 -1 34 -1.0476898751221597e-05</internalNodes>
          <leafValues>
            -9.6503186225891113e-01 3.4922179579734802e-01</leafValues></_></weakClassifiers></_>
    <!-- stage 1 -->
    <_>
      <maxWeakCount>5</maxWeakCount>
      <stageThreshold>-1.5654064416885376e+00</stageThreshold>
      <weakClassifiers>
        <_>
          <internalNodes>
            0 -1 13 -2.1083515882492065e-01</internalNodes>
          <leafValues>
            3.7554585933685303e-01 -8.1953293085098267e-01</leafValues></_>
        <_>
          <internalNodes>
            0 -1 34 1.0257448593620211e-05</internalNodes>
          <leafValues>
            3.3562639355659485e-01 -8.4967446327209473e-01</leafValues></_>
        <_>
          <internalNodes>
            0 -1 22 -1.4831218123435974e-01</internalNodes>
          <leafValues>
            5.8861756324768066e-01 -5.5143988132476807e-01</leafValues></_>
        <_>
          <internalNodes>
            0 -1 37 -5.8599762269295752e-05</internalNodes>
          <leafValues>
            -9.5799070596694946e-01 3.1567108631134033e-01</leafValues></_>
        <_>
          <internalNodes>
            0 -1 36 1.2601932394318283e-04</internalNodes>
          <leafValues>
            3.3956962823867798e-01 -9.4716024398803711e-01</leafValues></_></weakClassifiers></_>
    <!-- stage 2 -->
    <_>
      <maxWeakCount>4</maxWeakCount>
      <stageThreshold>-9.5292669534683228e-01</stageThreshold>
      <weakClassifiers>
        <_>
          <internalNodes>
            0 -1 11 -4.3627500534057617e-01</internalNodes>
          <leafValues>
            4.5751634240150452e-01 -6.7641681432723999e-01</leafValues></_>
        <_>
          <internalNodes>
            0 -1 24 -1.1356623470783234e-01</internalNodes>
          <leafValues>
            4.0107154846191406e-01 -7.0030772686004639e-01</leafValues></_>
        <_>
          <internalNodes>
            0 -1 23 2.3378896003123373e-04</internalNodes>
          <leafValues>
            2.6558715105056763e-01 -9.2129123210906982e-01</leafValues></_>
        <_>
          <internalNodes>
            0 -1 19 -3.0559480364900082e-05</internalNodes>
          <leafValues>
            -9.4316858053207397e-01 3.7237736582756042e-01</leafValues></_></weakClassifiers></_>
    <!-- stage 3 -->
    <_>
      <maxWeakCount>5</maxWeakCount>
      <stageThreshold>-1.1154545545578003e+00</stageThreshold>
      <weakClassifiers>
        <_>
          <internalNodes>
            0 -1 41 -2.1424893930088729e-06</internalNodes>
          <leafValues>
            -9.1605842113494873e-01 -1.1502347141504288e-01</leafValues></_>
        <_>
          <internalNodes>
            0 -1 4 1.7189467325806618e-04</internalNodes>
          <leafValues>
            1.5689963102340698e-01 -9.0090978145599365e-01</leafValues></_>
        <_>
          <internalNodes>
            0 -1 3 -4.7372106928378344e-04</internalNodes>
          <leafValues>
            -8.8422346115112305e-01 3.0326908826828003e-01</leafValues></_>
        <_>
          <internalNodes>
            0 -1 20 2.2573675960302353e-04</internalNodes>
          <leafValues>
            2.0737086236476898e-01 -8.3334428071975708e-01</leafValues></_>
        <_>
          <internalNodes>
            0 -1 18 -3.9008323801681399e-04</internalNodes>
          <leafValues>
            -8.4318888187408447e-01 3.2055675983428955e-01</leafValues></_></weakClassifiers></_>
    <!-- stage 4 -->
    <_>
      <maxWeakCount>5</maxWeakCount>
      <stageThreshold>-1.1122754812240601e+00</stageThreshold>
      <weakClassifiers>
        <_>
          <internalNodes>
            0 -1 35 3.7017811089754105e-02</internalNodes>
          <leafValues>
            -7.2494667768478394e-01 1.7316018044948578e-01</leafValues></_>
        <_>
          <internalNodes>
            0 -1 40 2.1212856609054143e-06</internalNodes>
          <leafValues>
            1.9933678209781647e-01 -8.9919167757034302e-01</leafValues></_>
        <_>
          <internalNodes>
            0 -1 40 -2.1233486222627107e-06</internalNodes>
          <leafValues>
            -8.3879691362380981e-01 2.8085669875144958e-01</leafValues></_>
        <_>
          <internalNodes>
            0 -1 15 2.2466472000814974e-04</internalNodes>
          <leafValues>
            2.3467066884040833e-01 -8.7395012378692627e-01</leafValues></_>
        <_>
          <internalNodes>
            0 -1 21 -1.3768749340670183e-05</internalNodes>
          <leafValues>
            -9.0177142620086670e-01 2.3561589419841766e-01</leafValues></_></weakClassifiers></_>
    <!-- stage 5 -->
    <_>
      <maxWeakCount>5</maxWeakCount>
      <stageThreshold>-9.6918386220932007e-01</stageThreshold>
      <weakClassifiers>
        <_>
          <internalNodes>
            0 -1 10 -1.7671748995780945e-01</internalNodes>
          <leafValues>
            2.3989218473434448e-01 -6.6958212852478027e-01</leafValues></_>
        <_>
          <internalNodes>
            0 -1 40 2.1161968106753193e-06</internalNodes>
          <leafValues>
            2.1437758207321167e-01 -8.8393056392669678e-01</leafValues></_>
        <_>
          <internalNodes>
            0 -1 21 1.8951475794892758e-05</internalNodes>
          <leafValues>
            2.1248655021190643e-01 -8.6012411117553711e-01</leafValues></_>
        <_>
          <internalNodes>
            0 -1 30 -1.8418148159980774e-02</internalNodes>
          <leafValues>
            3.2339599728584290e-01 -7.0577788352966309e-01</leafValues></_>
        <_>
          <internalNodes>
            0 -1 5 2.6570513000478968e-05</internalNodes>
          <leafValues>
            2.1158267557621002e-01 -9.9474364519119263e-01</leafValues></_></weakClassifiers></_>
    <!-- stage 6 -->
    <_>
      <maxWeakCount>5</maxWeakCount>
      <stageThreshold>-1.2199057340621948e+00</stageThreshold>
      <weakClassifiers>
        <_>
          <internalNodes>
            0 -1 17 -8.1535547971725464e-02</internalNodes>
          <leafValues>
            4.2513862252235413e-02 -7.2526192665100098e-01</leafValues></_>
        <_>
          <internalNodes>
            0 -1 0 -1.7588632181286812e-04</internalNodes>
          <leafValues>
            -9.2024493217468262e-01 1.9041496515274048e-01</leafValues></_>
        <_>
          <internalNodes>
            0 -1 1 1.1467812146292999e-04</internalNodes>
          <leafValues>
            1.9155465066432953e-01 -9.0644049644470215e-01</leafValues></_>
        <_>
          <internalNodes>
            0 -1 38 4.8116562538780272e-04</internalNodes>
          <leafValues>
            -5.1721429824829102e-01 3.6148196458816528e-01</leafValues></_>
        <_>
          <internalNodes>
            0 -1 31 -5.8050445659318939e-05</internalNodes>
          <leafValues>
            -8.9521121978759766e-01 2.3315954208374023e-01</leafValues></_></weakClassifiers></_>
    <!-- stage 7 -->
    <_>
      <maxWeakCount>7</maxWeakCount>
      <stageThreshold>-1.7444258928298950e+00</stageThreshold>
      <weakClassifiers>
        <_>
          <internalNodes>
            0 -1 29 8.4548832091968507e-05</internalNodes>
          <leafValues>
            -1.4953270554542542e-01 -8.6764705181121826e-01</leafValues></_>
        <_>
          <internalNodes>
            0 -1 25 -6.9236336275935173e-03</internalNodes>
          <leafValues>
            2.9333022236824036e-01 -6.2932860851287842e-01</leafValues></_>
        <_>
          <internalNodes>
            0 -1 7 -2.1058399397588801e-06</internalNodes>
          <leafValues>
            -8.6032325029373169e-01 2.0027294754981995e-01</leafValues></_>
        <_>
          <internalNodes>
            0 -1 39 1.6071181744337082e-02</internalNodes>
          <leafValues>
            -2.5515294075012207e-01 7.5657129287719727e-01</leafValues></_>
        <_>
          <internalNodes>
            0 -1 26 -3.7911836057901382e-02</internalNodes>
          <leafValues>
            3.7881475687026978e-01 -5.4650151729583740e-01</leafValues></_>
        <_>
          <internalNodes>
            0 -1 8 3.4746201708912849e-04</internalNodes>
          <leafValues>
            2.1558614075183868e-01 -8.7222450971603394e-01</leafValues></_>
        <_>
          <internalNodes>
            0 -1 2 2.6259272999595851e-05</internalNodes>
          <leafValues>
            2.3503254354000092e-01 -7.3544168472290039e-01</leafValues></_></weakClassifiers></_>
    <!-- stage 8 -->
    <_>
      <maxWeakCount>7</maxWeakCount>
      <stageThreshold>-1.4325383901596069e+00</stageThreshold>
      <weakClassifiers>
        <_>
          <internalNodes>
            0 -1 27 -5.5932381656020880e-05</internalNodes>
          <leafValues>
            -3.9872407913208008e-02 -7.4385511875152588e-01</leafValues></_>
        <_>
          <internalNodes>
            0 -1 9 -9.0485074906609952e-05</internalNodes>
          <leafValues>
            -8.4190088510513306e-01 1.6829912364482880e-01</leafValues></_>
        <_>
          <internalNodes>
            0 -1 14 7.1376271080225706e-05</internalNodes>
          <leafValues>
            2.3087246716022491e-01 -9.1774266958236694e-01</leafValues></_>
        <_>
          <internalNodes>
            0 -1 28 -2.6222050189971924e-02</internalNodes>
          <leafValues>
            3.6084845662117004e-01 -5.3626316785812378e-01</leafValues></_>
        <_>
          <internalNodes>
            0 -1 33 -3.1585269607603550e-04</internalNodes>
          <leafValues>
            3.7144705653190613e-01 -5.0883352756500244e-01</leafValues></_>
        <_>
          <internalNodes>
            0 -1 6 1.1957721653743647e-05</internalNodes>
          <leafValues>
            2.1394360065460205e-01 -9.0078949928283691e-01</leafValues></_>
        <_>
          <internalNodes>
            0 -1 32 -2.2978885681368411e-05</internalNodes>
          <leafValues>
            3.0101901292800903e-01 -5.5669879913330078e-01</leafValues></_></weakClassifiers></_></stages>
  <features>
    <_>
      <rects>
        <_>
          0 0 34 2 -1.</_>
        <_>
          0 1 34 1 2.</_></rects>
      <tilted>0</tilted></_>
    <_>
      <rects>
        <_>
          0 0 46 2 -1.</_>
        <_>
          0 1 46 1 2.</_></rects>
      <tilted>0</tilted></_>
    <_>
      <rects>
        <_>
          0 1 2 20 -1.</_>
        <_>
          1 1 1 20 2.</_></rects>
      <tilted>0</tilted></_>
    <_>
      <rects>
        <_>
          0 3 2 41 -1.</_>
        <_>
          1 3 1 41 2.</_></rects>
      <tilted>0</tilted></_>
    <_>
      <rects>
        <_>
          0 8 2 42 -1.</_>
        <_>
          1 8 1 42 2.</_></rects>
      <tilted>0</tilted></_>
    <_>
      <rects>
        <_>
          0 15 2 4 -1.</_>
        <_>
          0 15 1 2 2.</_>
        <_>
          1 17 1 2 2.</_></rects>
      <tilted>0</tilted></_>
    <_>
      <rects>
        <_>
          0 18 2 4 -1.</_>
        <_>
          0 18 1 2 2.</_>
        <_>
          1 20 1 2 2.</_></rects>
      <tilted>0</tilted></_>
    <_>
      <rects>
        <_>
          0 48 2 2 -1.</_>
        <_>
          0 49 2 1 2.</_></rects>
      <tilted>0</tilted></_>
    <_>
      <rects>
        <_>
          0 48 37 2 -1.</_>
        <_>
          0 49 37 1 2.</_></rects>
      <tilted>0</tilted></_>
    <_>
      <rects>
        <_>
          1 0 45 2 -1.</_>
        <_>
          1 1 45 1 2.</_></rects>
      <tilted>0</tilted></_>
    <_>
      <rects>
        <_>
          1 7 26 42 -1.</_>
        <_>
          14 7 13 42 2.</_></rects>
      <tilted>0</tilted></_>
    <_>
      <rects>
        <_>
          2 4 48 42 -1.</_>
        <_>
          18 4 16 42 3.</_></rects>
      <tilted>0</tilted></_>
    <_>
      <rects>
        <_>
          2 13 48 30 -1.</_>
        <_>
          18 13 16 30 3.</_></rects>
      <tilted>0</tilted></_>
    <_>
      <rects>
        <_>
          2 16 48 29 -1.</_>
        <_>
          18 16 16 29 3.</_></rects>
      <tilted>0</tilted></_>
    <_>
      <rects>
        <_>
          4 0 24 2 -1.</_>
        <_>
          4 1 24 1 2.</_></rects>
      <tilted>0</tilted></_>
    <_>
      <rects>
        <_>
          5 22 25 3 -1.</_>
        <_>
          5 23 25 1 3.</_></rects>
      <tilted>0</tilted></_>
    <_>
      <rects>
        <_>
          6 0 38 34 -1.</_>
        <_>
          6 17 38 17 2.</_></rects>
      <tilted>0</tilted></_>
    <_>
      <rects>
        <_>
          6 11 42 13 -1.</_>
        <_>
          20 11 14 13 3.</_></rects>
      <tilted>0</tilted></_>
    <_>
      <rects>
        <_>
          6 35 24 3 -1.</_>
        <_>
          6 36 24 1 3.</_></rects>
      <tilted>0</tilted></_>
    <_>
      <rects>
        <_>
          6 48 21 2 -1.</_>
        <_>
          6 49 21 1 2.</_></rects>
      <tilted>0</tilted></_>
    <_>
      <rects>
        <_>
          7 35 22 3 -1.</_>
        <_>
          7 36 22 1 3.</_></rects>
      <tilted>0</tilted></_>
    <_>
      <rects>
        <_>
          8 48 4 2 -1.</_>
        <_>
          8 48 2 1 2.</_>
        <_>
          10 49 2 1 2.</_></rects>
      <tilted>0</tilted></_>
    <_>
      <rects>
        <_>
          9 0 32 32 -1.</_>
        <_>
          9 16 32 16 2.</_></rects>
      <tilted>0</tilted></_>
    <_>
      <rects>
        <_>
          9 48 25 2 -1.</_>
        <_>
          9 49 25 1 2.</_></rects>
      <tilted>0</tilted></_>
    <_>
      <rects>
        <_>
          11 0 29 38 -1.</_>
        <_>
          11 19 29 19 2.</_></rects>
      <tilted>0</tilted></_>
    <_>
      <rects>
        <_>
          13 36 27 7 -1.</_>
        <_>
          22 36 9 7 3.</_></rects>
      <tilted>0</tilted></_>
    <_>
      <rects>
        <_>
          14 4 34 22 -1.</_>
        <_>
          14 15 34 11 2.</_></rects>
      <tilted>0</tilted></_>
    <_>
      <rects>
        <_>
          14 32 4 2 -1.</_>
        <_>
          16 32 2 2 2.</_></rects>
      <tilted>0</tilted></_>
    <_>
      <rects>
        <_>
          16 27 27 19 -1.</_>
        <_>
          25 27 9 19 3.</_></rects>
      <tilted>0</tilted></_>
    <_>
      <rects>
        <_>
          16 48 33 2 -1.</_>
        <_>
          16 49 33 1 2.</_></rects>
      <tilted>0</tilted></_>
    <_>
      <rects>
        <_>
          17 8 10 42 -1.</_>
        <_>
          17 22 10 14 3.</_></rects>
      <tilted>0</tilted></_>
    <_>
      <rects>
        <_>
          17 48 33 2 -1.</_>
        <_>
          17 49 33 1 2.</_></rects>
      <tilted>0</tilted></_>
    <_>
      <rects>
        <_>
          18 18 2 4 -1.</_>
        <_>
          18 20 2 2 2.</_></rects>
      <tilted>0</tilted></_>
    <_>
      <rects>
        <_>
          27 10 12 4 -1.</_>
        <_>
          27 12 12 2 2.</_></rects>
      <tilted>0</tilted></_>
    <_>
      <rects>
        <_>
          27 48 2 2 -1.</_>
        <_>
          27 49 2 1 2.</_></rects>
      <tilted>0</tilted></_>
    <_>
      <rects>
        <_>
          33 2 12 46 -1.</_>
        <_>
          39 2 6 46 2.</_></rects>
      <tilted>0</tilted></_>
    <_>
      <rects>
        <_>
          36 48 9 2 -1.</_>
        <_>
          36 49 9 1 2.</_></rects>
      <tilted>0</tilted></_>
    <_>
      <rects>
        <_>
          37 48 8 2 -1.</_>
        <_>
          37 49 8 1 2.</_></rects>
      <tilted>0</tilted></_>
    <_>
      <rects>
        <_>
          39 26 4 16 -1.</_>
        <_>
          41 26 2 16 2.</_></rects>
      <tilted>0</tilted></_>
    <_>
      <rects>
        <_>
          42 10 7 33 -1.</_>
        <_>
          42 21 7 11 3.</_></rects>
      <tilted>0</tilted></_>
    <_>
      <rects>
        <_>
          48 0 2 2 -1.</_>
        <_>
          48 1 2 1 2.</_></rects>
      <tilted>0</tilted></_>
    <_>
      <rects>
        <_>
          48 43 2 5 -1.</_>
        <_>
          49 43 1 5 2.</_></rects>
      <tilted>0</tilted></_></features></cascade>
</opencv_storage>
